-5.897694927389925817e-02
3.161091433237641635e-01
3.288246371084921904e-01
7.875193189369646962e-01
-2.235531440356678168e+00
1.033936817184035073e+00
5.012791318154150577e-01
8.954705991424246614e-01
1.287177065981827129e-01
-1.034451917862367454e+00
-6.075378577505028410e-01
4.088015024875420456e-01
-9.951433950171055809e-01
4.600739541588879100e-01
1.385581975381410258e+00
8.090986476051822418e-01
2.601615118958446438e+00
-2.548249604523951661e-01
-4.143235332152566675e-01
-9.055009344349806977e-01
-2.127347342917683903e+00
8.914973917989155172e-01
-2.917962531713517299e-02
-1.876885312400194294e+00
2.021061044689181685e+00
-3.636322580409361849e-01
-4.733776559944580797e-01
-2.700402919497097431e-01
-5.498882909020267329e-01
-4.818529634817086960e-02
-5.463006925744455788e-01
5.975749620239059201e-01
9.349739580337920186e-01
1.402697526122939353e-01
-8.163012371284966706e-01
-5.317465524338452765e-01
1.324417364160112021e+00
1.329115078914876180e-01
1.674434687699324575e+00
-1.035772395429682691e+00
-6.257578723276500110e-01
2.308642594553306782e-01
-2.172987660898614504e+00
-9.826507004121250999e-01
-2.984434993716624240e-01
-3.850444337930113980e-01
1.177920242774498499e-01
5.980138091209138418e-01
4.565988751712227733e-01
4.580692431287959263e-03
-1.538263227908380104e+00
1.165380531444218049e+00
-1.999559309789863182e+00
-4.715530150656161434e-01
2.503931488518130188e-01
-2.652537455015873125e-01
7.856222053589485554e-01
1.210759615908601816e+00
9.629604075968739574e-01
-1.323474891454336222e-01
9.721935889804027564e-01
1.298868527722187860e-01
6.168619839108521186e-01
1.115414315748354257e+00
7.834826486580893645e-01
-1.142557843642679982e+00
-2.943339420094083780e-01
1.242805453593740783e-01
-9.017959970657580815e-01
-2.077736024152460337e-01
1.659208562688601507e+00
-1.271504298106253872e+00
1.397742182706829039e+00
-1.915417784786626054e+00
-1.471816759140170960e-01
-5.428029111764293146e-01
-1.515329194520347311e+00
9.000803068051910216e-01
1.427841951478430849e+00
2.026239641764968180e+00
3.922579054331849502e-01
-4.402113819936027128e-01
9.353269505645985804e-01
-1.377864914525941176e+00
1.668580298167643861e+00
-1.658190953913620536e-01
2.949001538240899056e-01
-2.670069919548541559e+00
1.817418748076420620e-01
-7.723526879799473832e-01
-2.156727459059655516e-01
1.822828369035400797e-01
2.691567229993402366e-02
1.151974563941194907e+00
-9.315164822754998797e-01
3.940027197532479375e-02
-1.130378810803327916e+00
5.402282863724467976e-01
-1.537441564340904065e+00
6.805208408144528542e-01
-9.008886263170714503e-01
-2.292271045730158441e-01
-2.116957830799564289e-01
-6.497203966828064836e-02
1.223799398719193521e+00
-8.350071130829775923e-01
1.644854561154130534e+00
8.281812410899168642e-01
-3.021844458947839929e-01
4.660738096161005650e-01
7.639600856588786293e-01
-2.766594925278546002e-01
-3.837089007419814402e-01
-1.214274472042703890e+00
-1.137325394249515176e+00
5.562146427210704624e-01
5.958210701091241068e-01
4.882375234069007974e-01
5.517494660293685849e-01
-2.896736308256375181e-01
-1.118470692548291012e+00
1.359090164461348449e-01
5.060325299619348322e-02
4.582332587254688283e-01
1.338266323248213929e-01
8.725468675541860897e-01
-8.314186877372145568e-02
2.241881779781029482e-01
8.348358672055065099e-01
-2.714024726817055103e-02
1.498893566589118986e-01
5.134440737122960563e-01
-1.313287735915708854e-01
3.167089689337772573e-01
5.294309374834790249e-01
-5.072357305866850297e-01
-8.394507987831329593e-03
1.429415914405674837e+00
-1.518420989044141800e+00
-1.681616716052924954e-01
3.126736260920890409e-01
-6.606665435300240752e-01
-1.465823365793239796e+00
-6.042958977251590147e-01
-2.339450683551536958e+00
1.043267610889409558e-01
1.389727502622522870e+00
-1.525456573329313947e+00
7.970357171693593923e-01
7.599571405437207661e-01
3.922396337638101027e-01
-1.794438773297511336e+00
4.622180020812057810e-01
2.937773072301239630e-01
-5.533890172478332925e-01
1.446563632425996060e+00
-1.129257675699998797e+00
1.641178955145562224e+00
2.057910581195963040e-01
-2.207704353886801862e-01
1.065711734159940027e+00
2.251325224861004948e-01
-1.119184969259523710e+00
3.936531680043310888e-01
5.427115073516584065e-01
-2.999404491219410107e-01
-1.203749643818799120e+00
2.842592687754422198e-01
-1.534913084932677307e+00
1.513971631275322638e+00
-1.175644216605578718e+00
2.454448582421832059e-01
-1.342868757693013615e+00
2.161159275829970250e-01
-1.190351896773380158e+00
-2.494777914478293890e-01
6.791083418582593012e-01
-1.150374728275958436e+00
-2.782520377433267966e-01
1.086127581975306011e+00
-4.988204684682966406e-01
-4.059606451727155729e-01
1.198110932416598384e+00
-7.062980808454705044e-03
5.855496324707152311e-01
1.663660627312292251e-01
-1.273456586936099422e+00
1.261655503760763242e-01
1.473336967762846506e+00
2.124315158130668790e-01
2.065433089056922356e+00
2.279839148930283207e-02
-4.516668519960596595e-01
6.851250805063033855e-01
-1.219586543519735722e+00
1.027724060372123827e+00
-4.367501644066852928e-01
-3.382375695357827450e+00
-3.268901611718193212e-02
-7.568936219952712152e-01
-9.198348999068619580e-01
1.370860094146325037e-01
5.021663848163377963e-01
1.185498558874032327e+00
4.880599865219277522e-02
-6.729238834137929448e-02
1.530698340577761087e-02
-1.138908248576674526e-01
9.899908068979518250e-02
-3.995996021339419113e-01
-8.744094513635475296e-01
4.127374557723669235e-01
-4.304645089777065503e-01
1.812918312728653281e-01
1.132317602130551160e-01
-8.496483562168614112e-01
4.609754529113720967e-01
1.625105413326551340e-01
-1.639484499907751580e+00
-4.845222337520252442e-01
-4.988942254657435238e-01
1.252321245266802219e+00
-1.050884203257653748e+00
1.789787977940849206e+00
-1.134382186055484576e+00
-7.178720861981233714e-01
-1.356242868704838622e-01
-3.321750255406785146e-01
4.946916847223695735e-01
2.735553933198340837e-01
-4.333309106629398277e-01
-3.957572397361420191e-01
-2.942331878742758811e-01
9.996342161337414822e-01
-9.134115477892243984e-01
-1.204522224366548766e+00
-7.225482303959757102e-01
-7.415928282953093698e-01
1.540046463458836445e+00
3.780930378790618440e-01
2.773133367404634342e-01
-6.055764523248834408e-01
-1.009039000254639218e+00
5.095763556075519896e-01
-1.304247161229050045e+00
-3.387763561171102666e-01
1.570871424282194617e+00
-1.812659144968986613e-01
-1.924952939350537198e-02
8.594795097819522001e-01
-6.664756415531530864e-01
1.464167571413210522e+00
8.573340639531122909e-01
-9.420465925546941954e-02
-4.104967790406468531e-01
-2.507639606964852663e-01
2.290331588896342474e+00
3.740171708630758429e-01
-4.719735003077878410e-01
1.889693796451124452e+00
3.022496033734256571e-01
-3.682982108839334967e-01
-1.448864254110944147e-02
1.426805250893478760e+00
-1.322713731634239664e-01
-5.507953141846120282e-01
3.946397826253902896e-01
-9.524886648712100889e-01
8.230638664791114500e-01
-6.628933702442342535e-02
1.393751160613760920e+00
-1.412104765050804733e+00
2.409528953756071346e+00
-3.822604328139024843e-01
1.154727314793771553e+00
-2.934263699883906007e+00
-1.003823414177962697e-01
-2.147488063325526386e-01
-8.551700569564111287e-01
1.909652416822681387e-01
-1.500918739532751234e+00
